<?xml version="1.0"?>
<opencv_storage>
<cascade>
  <stageType>BOOST</stageType>
  <featureType>HAAR</featureType>
  <height>24</height>
  <width>24</width>
  <stageParams>
    <boostType>GAB</boostType>
    <minHitRate>9.9900001287460327e-01</minHitRate>
    <maxFalseAlarm>4.0000000596046448e-01</maxFalseAlarm>
    <weightTrimRate>9.4999999999999996e-01</weightTrimRate>
    <maxDepth>1</maxDepth>
    <maxWeakCount>100</maxWeakCount></stageParams>
  <featureParams>
    <maxCatCount>0</maxCatCount>
    <featSize>1</featSize>
    <mode>BASIC</mode></featureParams>
  <stageNum>11</stageNum>
  <stages>
    <!-- stage 0 -->
    <_>
      <maxWeakCount>5</maxWeakCount>
      <stageThreshold>-1.3446097373962402e+00</stageThreshold>
      <weakClassifiers>
        <_>
          <internalNodes>
            0 -1 47 7.9247960820794106e-03</internalNodes>
          <leafValues>
            -8.7583571672439575e-01 3.2075470685958862e-01</leafValues></_>
        <_>
          <internalNodes>
            0 -1 61 -1.7889592051506042e-01</internalNodes>
          <leafValues>
            1.7607915401458740e-01 -9.8454964160919189e-01</leafValues></_>
        <_>
          <internalNodes>
            0 -1 26 4.9970031250268221e-04</internalNodes>
          <leafValues>
            -5.7089984416961670e-01 5.9800839424133301e-01</leafValues></_>
        <_>
          <internalNodes>
            0 -1 53 2.0951819606125355e-03</internalNodes>
          <leafValues>
            -4.4408729672431946e-01 7.5279921293258667e-01</leafValues></_>
        <_>
          <internalNodes>
            0 -1 21 -1.0336536914110184e-01</internalNodes>
          <leafValues>
            3.7013393640518188e-01 -9.8041588068008423e-01</leafValues></_></weakClassifiers></_>
    <!-- stage 1 -->
    <_>
      <maxWeakCount>4</maxWeakCount>
      <stageThreshold>-1.0038837194442749e+00</stageThreshold>
      <weakClassifiers>
        <_>
          <internalNodes>
            0 -1 47 7.9315286129713058e-03</internalNodes>
          <leafValues>
            -8.7475913763046265e-01 1.2903225421905518e-01</leafValues></_>
        <_>
          <internalNodes>
            0 -1 31 -1.4448502659797668e-01</internalNodes>
          <leafValues>
            -9.6242243051528931e-01 1.2756465375423431e-01</leafValues></_>
        <_>
          <internalNodes>
            0 -1 41 7.2829576674848795e-04</internalNodes>
          <leafValues>
            -5.1688975095748901e-01 5.9195744991302490e-01</leafValues></_>
        <_>
          <internalNodes>
            0 -1 25 -7.0986054837703705e-02</internalNodes>
          <leafValues>
            -1. 2.6020050048828125e-01</leafValues></_></weakClassifiers></_>
    <!-- stage 2 -->
    <_>
      <maxWeakCount>4</maxWeakCount>
      <stageThreshold>-1.5618466138839722e+00</stageThreshold>
      <weakClassifiers>
        <_>
          <internalNodes>
            0 -1 60 1.0370872914791107e-03</internalNodes>
          <leafValues>
            -8.9773845672607422e-01 1.5662650763988495e-01</leafValues></_>
        <_>
          <internalNodes>
            0 -1 46 -1.2753899209201336e-03</internalNodes>
          <leafValues>
            5.3337299823760986e-01 -6.9814193248748779e-01</leafValues></_>
        <_>
          <internalNodes>
            0 -1 16 -5.5396178504452109e-04</internalNodes>
          <leafValues>
            7.8321439027786255e-01 -4.6914547681808472e-01</leafValues></_>
        <_>
          <internalNodes>
            0 -1 70 -3.4805689938366413e-04</internalNodes>
          <leafValues>
            6.6005927324295044e-01 -5.5118572711944580e-01</leafValues></_></weakClassifiers></_>
    <!-- stage 3 -->
    <_>
      <maxWeakCount>5</maxWeakCount>
      <stageThreshold>-1.5912376642227173e+00</stageThreshold>
      <weakClassifiers>
        <_>
          <internalNodes>
            0 -1 41 1.9313159864395857e-03</internalNodes>
          <leafValues>
            -8.7837839126586914e-01 1.5625000000000000e-01</leafValues></_>
        <_>
          <internalNodes>
            0 -1 57 -7.5188244227319956e-04</internalNodes>
          <leafValues>
            3.8092499971389771e-01 -6.5033018589019775e-01</leafValues></_>
        <_>
          <internalNodes>
            0 -1 43 -5.9070030692964792e-04</internalNodes>
          <leafValues>
            5.5891817808151245e-01 -4.6705296635627747e-01</leafValues></_>
        <_>
          <internalNodes>
            0 -1 23 -1.7818079795688391e-03</internalNodes>
          <leafValues>
            7.5091874599456787e-01 -3.1385090947151184e-01</leafValues></_>
        <_>
          <internalNodes>
            0 -1 22 1.9462839700281620e-03</internalNodes>
          <leafValues>
            -3.0759638547897339e-01 7.5986516475677490e-01</leafValues></_></weakClassifiers></_>
    <!-- stage 4 -->
    <_>
      <maxWeakCount>6</maxWeakCount>
      <stageThreshold>-1.9471153020858765e+00</stageThreshold>
      <weakClassifiers>
        <_>
          <internalNodes>
            0 -1 67 5.2589122205972672e-03</internalNodes>
          <leafValues>
            -8.7523990869522095e-01 2.0689655840396881e-01</leafValues></_>
        <_>
          <internalNodes>
            0 -1 27 -1.2093150289729238e-03</internalNodes>
          <leafValues>
            4.6821480989456177e-01 -6.1252975463867188e-01</leafValues></_>
        <_>
          <internalNodes>
            0 -1 13 1.3773719547316432e-03</internalNodes>
          <leafValues>
            -4.1586679220199585e-01 5.6748366355895996e-01</leafValues></_>
        <_>
          <internalNodes>
            0 -1 69 -1.0741292499005795e-03</internalNodes>
          <leafValues>
            6.0614544153213501e-01 -4.1914844512939453e-01</leafValues></_>
        <_>
          <internalNodes>
            0 -1 49 -9.4493606593459845e-04</internalNodes>
          <leafValues>
            6.4602696895599365e-01 -3.6860728263854980e-01</leafValues></_>
        <_>
          <internalNodes>
            0 -1 7 1.8837105017155409e-03</internalNodes>
          <leafValues>
            -2.8101700544357300e-01 7.9110950231552124e-01</leafValues></_></weakClassifiers></_>
    <!-- stage 5 -->
    <_>
      <maxWeakCount>7</maxWeakCount>
      <stageThreshold>-1.4442720413208008e+00</stageThreshold>
      <weakClassifiers>
        <_>
          <internalNodes>
            0 -1 24 -3.4380345605313778e-03</internalNodes>
          <leafValues>
            4.0740740299224854e-01 -8.4902143478393555e-01</leafValues></_>
        <_>
          <internalNodes>
            0 -1 15 -8.6907355580478907e-04</internalNodes>
          <leafValues>
            2.8510862588882446e-01 -5.9503263235092163e-01</leafValues></_>
        <_>
          <internalNodes>
            0 -1 28 3.9541290607303381e-04</internalNodes>
          <leafValues>
            2.2446794807910919e-01 -7.5445252656936646e-01</leafValues></_>
        <_>
          <internalNodes>
            0 -1 51 7.7878274023532867e-03</internalNodes>
          <leafValues>
            -3.1972694396972656e-01 7.2080814838409424e-01</leafValues></_>
        <_>
          <internalNodes>
            0 -1 5 6.4796517835929990e-04</internalNodes>
          <leafValues>
            -3.3714365959167480e-01 5.7487004995346069e-01</leafValues></_>
        <_>
          <internalNodes>
            0 -1 54 1.1624901089817286e-03</internalNodes>
          <leafValues>
            -1.9592079520225525e-01 7.5364184379577637e-01</leafValues></_>
        <_>
          <internalNodes>
            0 -1 9 5.0555597990751266e-03</internalNodes>
          <leafValues>
            -2.5203576683998108e-01 7.0163238048553467e-01</leafValues></_></weakClassifiers></_>
    <!-- stage 6 -->
    <_>
      <maxWeakCount>8</maxWeakCount>
      <stageThreshold>-1.5298956632614136e+00</stageThreshold>
      <weakClassifiers>
        <_>
          <internalNodes>
            0 -1 45 7.7460482716560364e-03</internalNodes>
          <leafValues>
            -8.6564296483993530e-01 3.4482758492231369e-02</leafValues></_>
        <_>
          <internalNodes>
            0 -1 37 3.5263081081211567e-03</internalNodes>
          <leafValues>
            -5.4854208230972290e-01 3.6965596675872803e-01</leafValues></_>
        <_>
          <internalNodes>
            0 -1 36 6.0595415532588959e-02</internalNodes>
          <leafValues>
            1.3376882672309875e-01 -9.1372632980346680e-01</leafValues></_>
        <_>
          <internalNodes>
            0 -1 19 -3.6764889955520630e-02</internalNodes>
          <leafValues>
            -6.6795331239700317e-01 2.0017212629318237e-01</leafValues></_>
        <_>
          <internalNodes>
            0 -1 39 -1.7200130969285965e-03</internalNodes>
          <leafValues>
            5.8370184898376465e-01 -2.6922443509101868e-01</leafValues></_>
        <_>
          <internalNodes>
            0 -1 68 1.1585014872252941e-03</internalNodes>
          <leafValues>
            -2.9215991497039795e-01 4.9593621492385864e-01</leafValues></_>
        <_>
          <internalNodes>
            0 -1 18 -4.6426005661487579e-02</internalNodes>
          <leafValues>
            -8.4720391035079956e-01 2.2363609075546265e-01</leafValues></_>
        <_>
          <internalNodes>
            0 -1 11 4.4438224285840988e-02</internalNodes>
          <leafValues>
            1.8603973090648651e-01 -9.0399217605590820e-01</leafValues></_></weakClassifiers></_>
    <!-- stage 7 -->
    <_>
      <maxWeakCount>8</maxWeakCount>
      <stageThreshold>-1.4520641565322876e+00</stageThreshold>
      <weakClassifiers>
        <_>
          <internalNodes>
            0 -1 32 -2.3894350975751877e-02</internalNodes>
          <leafValues>
            3.0769231915473938e-01 -8.4543764591217041e-01</leafValues></_>
        <_>
          <internalNodes>
            0 -1 58 4.5799650251865387e-03</internalNodes>
          <leafValues>
            -5.0472021102905273e-01 4.5169407129287720e-01</leafValues></_>
        <_>
          <internalNodes>
            0 -1 2 -5.6001201272010803e-02</internalNodes>
          <leafValues>
            -9.1638273000717163e-01 1.3622625172138214e-01</leafValues></_>
        <_>
          <internalNodes>
            0 -1 34 3.5025151446461678e-03</internalNodes>
          <leafValues>
            -2.8904122114181519e-01 5.7772111892700195e-01</leafValues></_>
        <_>
          <internalNodes>
            0 -1 52 -1.7380828037858009e-02</internalNodes>
          <leafValues>
            -8.5549390316009521e-01 2.3137922585010529e-01</leafValues></_>
        <_>
          <internalNodes>
            0 -1 40 3.7676475942134857e-02</internalNodes>
          <leafValues>
            1.2696607410907745e-01 -8.5140061378479004e-01</leafValues></_>
        <_>
          <internalNodes>
            0 -1 62 -2.8611845336854458e-03</internalNodes>
          <leafValues>
            5.9856253862380981e-01 -2.7575576305389404e-01</leafValues></_>
        <_>
          <internalNodes>
            0 -1 20 1.9005242735147476e-02</internalNodes>
          <leafValues>
            1.8842990696430206e-01 -8.5710000991821289e-01</leafValues></_></weakClassifiers></_>
    <!-- stage 8 -->
    <_>
      <maxWeakCount>8</maxWeakCount>
      <stageThreshold>-1.4666255712509155e+00</stageThreshold>
      <weakClassifiers>
        <_>
          <internalNodes>
            0 -1 71 -5.5565200746059418e-03</internalNodes>
          <leafValues>
            -1.9354838132858276e-01 -8.5549134016036987e-01</leafValues></_>
        <_>
          <internalNodes>
            0 -1 44 3.9747529663145542e-03</internalNodes>
          <leafValues>
            -5.7819950580596924e-01 7.8260272741317749e-02</leafValues></_>
        <_>
          <internalNodes>
            0 -1 30 -5.1229380071163177e-02</internalNodes>
          <leafValues>
            -9.6995729207992554e-01 8.8689729571342468e-02</leafValues></_>
        <_>
          <internalNodes>
            0 -1 0 -7.1751639246940613e-02</internalNodes>
          <leafValues>
            2.1793685853481293e-01 -5.5106151103973389e-01</leafValues></_>
        <_>
          <internalNodes>
            0 -1 64 1.1238311417400837e-03</internalNodes>
          <leafValues>
            -2.5739356875419617e-01 5.5613088607788086e-01</leafValues></_>
        <_>
          <internalNodes>
            0 -1 6 4.3401256203651428e-02</internalNodes>
          <leafValues>
            1.5684580802917480e-01 -9.0846735239028931e-01</leafValues></_>
        <_>
          <internalNodes>
            0 -1 38 1.0394408600404859e-03</internalNodes>
          <leafValues>
            -2.6186916232109070e-01 4.8203325271606445e-01</leafValues></_>
        <_>
          <internalNodes>
            0 -1 10 -2.4940004572272301e-02</internalNodes>
          <leafValues>
            -1. 1.3539418578147888e-01</leafValues></_></weakClassifiers></_>
    <!-- stage 9 -->
    <_>
      <maxWeakCount>9</maxWeakCount>
      <stageThreshold>-1.8909052610397339e+00</stageThreshold>
      <weakClassifiers>
        <_>
          <internalNodes>
            0 -1 50 -1.0503858327865601e-02</internalNodes>
          <leafValues>
            3.0000001192092896e-01 -8.3888888359069824e-01</leafValues></_>
        <_>
          <internalNodes>
            0 -1 35 -1.9305290188640356e-03</internalNodes>
          <leafValues>
            3.1210339069366455e-01 -4.8276937007904053e-01</leafValues></_>
        <_>
          <internalNodes>
            0 -1 65 1.1817762628197670e-02</internalNodes>
          <leafValues>
            -2.0511257648468018e-01 5.5727016925811768e-01</leafValues></_>
        <_>
          <internalNodes>
            0 -1 55 -2.3067998699843884e-03</internalNodes>
          <leafValues>
            4.3498817086219788e-01 -2.6809465885162354e-01</leafValues></_>
        <_>
          <internalNodes>
            0 -1 14 7.1407394716516137e-04</internalNodes>
          <leafValues>
            -2.4727079272270203e-01 4.2641595005989075e-01</leafValues></_>
        <_>
          <internalNodes>
            0 -1 17 2.2343173623085022e-03</internalNodes>
          <leafValues>
            -2.3597253859043121e-01 4.7971987724304199e-01</leafValues></_>
        <_>
          <internalNodes>
            0 -1 3 3.3889044076204300e-02</internalNodes>
          <leafValues>
            1.8163315951824188e-01 -6.6763693094253540e-01</leafValues></_>
        <_>
          <internalNodes>
            0 -1 33 -1.1100391857326031e-03</internalNodes>
          <leafValues>
            3.5220640897750854e-01 -3.2952332496643066e-01</leafValues></_>
        <_>
          <internalNodes>
            0 -1 48 4.1564772836863995e-03</internalNodes>
          <leafValues>
            -2.5977909564971924e-01 5.4313015937805176e-01</leafValues></_></weakClassifiers></_>
    <!-- stage 10 -->
    <_>
      <maxWeakCount>10</maxWeakCount>
      <stageThreshold>-1.4363425970077515e+00</stageThreshold>
      <weakClassifiers>
        <_>
          <internalNodes>
            0 -1 63 4.2279493063688278e-03</internalNodes>
          <leafValues>
            -8.5436892509460449e-01 -2.8571429848670959e-01</leafValues></_>
        <_>
          <internalNodes>
            0 -1 42 3.1055891886353493e-03</internalNodes>
          <leafValues>
            -4.8508876562118530e-01 2.6774322986602783e-01</leafValues></_>
        <_>
          <internalNodes>
            0 -1 59 1.0338796302676201e-02</internalNodes>
          <leafValues>
            -1.8913389742374420e-01 5.4695832729339600e-01</leafValues></_>
        <_>
          <internalNodes>
            0 -1 12 -2.8405886143445969e-02</internalNodes>
          <leafValues>
            -6.1776065826416016e-01 1.6317184269428253e-01</leafValues></_>
        <_>
          <internalNodes>
            0 -1 4 -6.9338879548013210e-03</internalNodes>
          <leafValues>
            -7.4820566177368164e-01 1.1104147136211395e-01</leafValues></_>
        <_>
          <internalNodes>
            0 -1 66 3.9206698420457542e-04</internalNodes>
          <leafValues>
            -2.2970822453498840e-01 3.9017477631568909e-01</leafValues></_>
        <_>
          <internalNodes>
            0 -1 1 -2.2382717579603195e-03</internalNodes>
          <leafValues>
            6.1597669124603271e-01 -1.6096873581409454e-01</leafValues></_>
        <_>
          <internalNodes>
            0 -1 29 -6.9026965647935867e-03</internalNodes>
          <leafValues>
            -8.3640730381011963e-01 1.4688152074813843e-01</leafValues></_>
        <_>
          <internalNodes>
            0 -1 8 3.0295308679342270e-02</internalNodes>
          <leafValues>
            7.7699244022369385e-02 -9.1761648654937744e-01</leafValues></_>
        <_>
          <internalNodes>
            0 -1 56 1.6359025612473488e-03</internalNodes>
          <leafValues>
            1.4529475569725037e-01 -5.8452278375625610e-01</leafValues></_></weakClassifiers></_></stages>
  <features>
    <_>
      <rects>
        <_>
          0 0 13 24 -1.</_>
        <_>
          0 12 13 12 2.</_></rects>
      <tilted>0</tilted></_>
    <_>
      <rects>
        <_>
          0 2 2 1 -1.</_>
        <_>
          1 2 1 1 2.</_></rects>
      <tilted>0</tilted></_>
    <_>
      <rects>
        <_>
          0 2 18 14 -1.</_>
        <_>
          0 2 9 7 2.</_>
        <_>
          9 9 9 7 2.</_></rects>
      <tilted>0</tilted></_>
    <_>
      <rects>
        <_>
          0 10 22 10 -1.</_>
        <_>
          0 10 11 5 2.</_>
        <_>
          11 15 11 5 2.</_></rects>
      <tilted>0</tilted></_>
    <_>
      <rects>
        <_>
          0 11 22 2 -1.</_>
        <_>
          0 11 11 1 2.</_>
        <_>
          11 12 11 1 2.</_></rects>
      <tilted>0</tilted></_>
    <_>
      <rects>
        <_>
          0 14 1 2 -1.</_>
        <_>
          0 15 1 1 2.</_></rects>
      <tilted>0</tilted></_>
    <_>
      <rects>
        <_>
          0 15 20 8 -1.</_>
        <_>
          0 15 10 4 2.</_>
        <_>
          10 19 10 4 2.</_></rects>
      <tilted>0</tilted></_>
    <_>
      <rects>
        <_>
          0 20 2 2 -1.</_>
        <_>
          1 20 1 2 2.</_></rects>
      <tilted>0</tilted></_>
    <_>
      <rects>
        <_>
          1 8 22 6 -1.</_>
        <_>
          1 8 11 3 2.</_>
        <_>
          12 11 11 3 2.</_></rects>
      <tilted>0</tilted></_>
    <_>
      <rects>
        <_>
          1 11 2 8 -1.</_>
        <_>
          1 11 1 4 2.</_>
        <_>
          2 15 1 4 2.</_></rects>
      <tilted>0</tilted></_>
    <_>
      <rects>
        <_>
          2 0 22 4 -1.</_>
        <_>
          2 0 11 2 2.</_>
        <_>
          13 2 11 2 2.</_></rects>
      <tilted>0</tilted></_>
    <_>
      <rects>
        <_>
          2 5 20 10 -1.</_>
        <_>
          2 5 10 5 2.</_>
        <_>
          12 10 10 5 2.</_></rects>
      <tilted>0</tilted></_>
    <_>
      <rects>
        <_>
          2 13 22 10 -1.</_>
        <_>
          2 13 11 5 2.</_>
        <_>
          13 18 11 5 2.</_></rects>
      <tilted>0</tilted></_>
    <_>
      <rects>
        <_>
          2 18 2 4 -1.</_>
        <_>
          2 18 1 2 2.</_>
        <_>
          3 20 1 2 2.</_></rects>
      <tilted>0</tilted></_>
    <_>
      <rects>
        <_>
          2 21 2 1 -1.</_>
        <_>
          3 21 1 1 2.</_></rects>
      <tilted>0</tilted></_>
    <_>
      <rects>
        <_>
          3 6 2 1 -1.</_>
        <_>
          4 6 1 1 2.</_></rects>
      <tilted>0</tilted></_>
    <_>
      <rects>
        <_>
          3 8 2 1 -1.</_>
        <_>
          4 8 1 1 2.</_></rects>
      <tilted>0</tilted></_>
    <_>
      <rects>
        <_>
          3 18 2 4 -1.</_>
        <_>
          3 18 1 2 2.</_>
        <_>
          4 20 1 2 2.</_></rects>
      <tilted>0</tilted></_>
    <_>
      <rects>
        <_>
          4 5 20 10 -1.</_>
        <_>
          4 5 10 5 2.</_>
        <_>
          14 10 10 5 2.</_></rects>
      <tilted>0</tilted></_>
    <_>
      <rects>
        <_>
          4 8 20 14 -1.</_>
        <_>
          4 8 10 7 2.</_>
        <_>
          14 15 10 7 2.</_></rects>
      <tilted>0</tilted></_>
    <_>
      <rects>
        <_>
          5 0 14 6 -1.</_>
        <_>
          5 0 7 3 2.</_>
        <_>
          12 3 7 3 2.</_></rects>
      <tilted>0</tilted></_>
    <_>
      <rects>
        <_>
          5 3 18 1 -1.</_>
        <_>
          11 3 6 1 2.</_></rects>
      <tilted>0</tilted></_>
    <_>
      <rects>
        <_>
          5 10 2 3 -1.</_>
        <_>
          6 10 1 3 2.</_></rects>
      <tilted>0</tilted></_>
    <_>
      <rects>
        <_>
          5 11 2 2 -1.</_>
        <_>
          6 11 1 2 2.</_></rects>
      <tilted>0</tilted></_>
    <_>
      <rects>
        <_>
          5 17 2 1 -1.</_>
        <_>
          6 17 1 1 2.</_></rects>
      <tilted>0</tilted></_>
    <_>
      <rects>
        <_>
          5 20 3 1 -1.</_>
        <_>
          6 20 1 1 2.</_></rects>
      <tilted>0</tilted></_>
    <_>
      <rects>
        <_>
          5 21 2 1 -1.</_>
        <_>
          6 21 1 1 2.</_></rects>
      <tilted>0</tilted></_>
    <_>
      <rects>
        <_>
          5 22 2 2 -1.</_>
        <_>
          5 22 1 1 2.</_>
        <_>
          6 23 1 1 2.</_></rects>
      <tilted>0</tilted></_>
    <_>
      <rects>
        <_>
          6 4 15 20 -1.</_>
        <_>
          6 14 15 10 2.</_></rects>
      <tilted>0</tilted></_>
    <_>
      <rects>
        <_>
          6 10 14 2 -1.</_>
        <_>
          6 10 7 1 2.</_>
        <_>
          13 11 7 1 2.</_></rects>
      <tilted>0</tilted></_>
    <_>
      <rects>
        <_>
          6 14 18 10 -1.</_>
        <_>
          6 14 9 5 2.</_>
        <_>
          15 19 9 5 2.</_></rects>
      <tilted>0</tilted></_>
    <_>
      <rects>
        <_>
          6 21 3 3 -1.</_>
        <_>
          7 21 1 3 2.</_></rects>
      <tilted>0</tilted></_>
    <_>
      <rects>
        <_>
          7 1 2 21 -1.</_>
        <_>
          8 1 1 21 2.</_></rects>
      <tilted>0</tilted></_>
    <_>
      <rects>
        <_>
          7 4 7 2 -1.</_>
        <_>
          7 5 7 1 2.</_></rects>
      <tilted>0</tilted></_>
    <_>
      <rects>
        <_>
          7 15 2 3 -1.</_>
        <_>
          8 15 1 3 2.</_></rects>
      <tilted>0</tilted></_>
    <_>
      <rects>
        <_>
          8 4 2 1 -1.</_>
        <_>
          9 4 1 1 2.</_></rects>
      <tilted>0</tilted></_>
    <_>
      <rects>
        <_>
          8 6 16 16 -1.</_>
        <_>
          8 6 8 8 2.</_>
        <_>
          16 14 8 8 2.</_></rects>
      <tilted>0</tilted></_>
    <_>
      <rects>
        <_>
          8 7 2 4 -1.</_>
        <_>
          8 7 1 2 2.</_>
        <_>
          9 9 1 2 2.</_></rects>
      <tilted>0</tilted></_>
    <_>
      <rects>
        <_>
          8 11 2 1 -1.</_>
        <_>
          9 11 1 1 2.</_></rects>
      <tilted>0</tilted></_>
    <_>
      <rects>
        <_>
          9 10 2 2 -1.</_>
        <_>
          9 10 1 1 2.</_>
        <_>
          10 11 1 1 2.</_></rects>
      <tilted>0</tilted></_>
    <_>
      <rects>
        <_>
          9 11 14 12 -1.</_>
        <_>
          9 11 7 6 2.</_>
        <_>
          16 17 7 6 2.</_></rects>
      <tilted>0</tilted></_>
    <_>
      <rects>
        <_>
          9 14 2 1 -1.</_>
        <_>
          10 14 1 1 2.</_></rects>
      <tilted>0</tilted></_>
    <_>
      <rects>
        <_>
          10 5 2 2 -1.</_>
        <_>
          11 5 1 2 2.</_></rects>
      <tilted>0</tilted></_>
    <_>
      <rects>
        <_>
          10 10 1 2 -1.</_>
        <_>
          10 11 1 1 2.</_></rects>
      <tilted>0</tilted></_>
    <_>
      <rects>
        <_>
          10 13 2 8 -1.</_>
        <_>
          10 13 1 4 2.</_>
        <_>
          11 17 1 4 2.</_></rects>
      <tilted>0</tilted></_>
    <_>
      <rects>
        <_>
          10 14 2 6 -1.</_>
        <_>
          10 14 1 3 2.</_>
        <_>
          11 17 1 3 2.</_></rects>
      <tilted>0</tilted></_>
    <_>
      <rects>
        <_>
          10 15 2 2 -1.</_>
        <_>
          11 15 1 2 2.</_></rects>
      <tilted>0</tilted></_>
    <_>
      <rects>
        <_>
          10 15 2 8 -1.</_>
        <_>
          10 15 1 4 2.</_>
        <_>
          11 19 1 4 2.</_></rects>
      <tilted>0</tilted></_>
    <_>
      <rects>
        <_>
          11 14 2 5 -1.</_>
        <_>
          12 14 1 5 2.</_></rects>
      <tilted>0</tilted></_>
    <_>
      <rects>
        <_>
          12 7 2 2 -1.</_>
        <_>
          13 7 1 2 2.</_></rects>
      <tilted>0</tilted></_>
    <_>
      <rects>
        <_>
          12 10 2 4 -1.</_>
        <_>
          13 10 1 4 2.</_></rects>
      <tilted>0</tilted></_>
    <_>
      <rects>
        <_>
          12 14 2 9 -1.</_>
        <_>
          13 14 1 9 2.</_></rects>
      <tilted>0</tilted></_>
    <_>
      <rects>
        <_>
          12 17 12 3 -1.</_>
        <_>
          18 17 6 3 2.</_></rects>
      <tilted>0</tilted></_>
    <_>
      <rects>
        <_>
          12 19 2 5 -1.</_>
        <_>
          13 19 1 5 2.</_></rects>
      <tilted>0</tilted></_>
    <_>
      <rects>
        <_>
          13 7 2 2 -1.</_>
        <_>
          13 7 1 1 2.</_>
        <_>
          14 8 1 1 2.</_></rects>
      <tilted>0</tilted></_>
    <_>
      <rects>
        <_>
          13 10 2 4 -1.</_>
        <_>
          14 10 1 4 2.</_></rects>
      <tilted>0</tilted></_>
    <_>
      <rects>
        <_>
          13 12 8 12 -1.</_>
        <_>
          13 18 8 6 2.</_></rects>
      <tilted>0</tilted></_>
    <_>
      <rects>
        <_>
          13 16 2 1 -1.</_>
        <_>
          14 16 1 1 2.</_></rects>
      <tilted>0</tilted></_>
    <_>
      <rects>
        <_>
          14 14 2 4 -1.</_>
        <_>
          14 14 1 2 2.</_>
        <_>
          15 16 1 2 2.</_></rects>
      <tilted>0</tilted></_>
    <_>
      <rects>
        <_>
          15 6 2 14 -1.</_>
        <_>
          15 6 1 7 2.</_>
        <_>
          16 13 1 7 2.</_></rects>
      <tilted>0</tilted></_>
    <_>
      <rects>
        <_>
          15 14 2 2 -1.</_>
        <_>
          15 14 1 1 2.</_>
        <_>
          16 15 1 1 2.</_></rects>
      <tilted>0</tilted></_>
    <_>
      <rects>
        <_>
          16 0 5 6 -1.</_>
        <_>
          16 2 5 2 2.</_></rects>
      <tilted>0</tilted></_>
    <_>
      <rects>
        <_>
          16 15 2 2 -1.</_>
        <_>
          17 15 1 2 2.</_></rects>
      <tilted>0</tilted></_>
    <_>
      <rects>
        <_>
          16 17 2 2 -1.</_>
        <_>
          17 17 1 2 2.</_></rects>
      <tilted>0</tilted></_>
    <_>
      <rects>
        <_>
          16 20 2 1 -1.</_>
        <_>
          17 20 1 1 2.</_></rects>
      <tilted>0</tilted></_>
    <_>
      <rects>
        <_>
          17 1 2 22 -1.</_>
        <_>
          17 1 1 11 2.</_>
        <_>
          18 12 1 11 2.</_></rects>
      <tilted>0</tilted></_>
    <_>
      <rects>
        <_>
          18 12 1 2 -1.</_>
        <_>
          18 13 1 1 2.</_></rects>
      <tilted>0</tilted></_>
    <_>
      <rects>
        <_>
          19 12 2 6 -1.</_>
        <_>
          19 12 1 3 2.</_>
        <_>
          20 15 1 3 2.</_></rects>
      <tilted>0</tilted></_>
    <_>
      <rects>
        <_>
          19 16 2 2 -1.</_>
        <_>
          20 16 1 2 2.</_></rects>
      <tilted>0</tilted></_>
    <_>
      <rects>
        <_>
          19 20 2 3 -1.</_>
        <_>
          20 20 1 3 2.</_></rects>
      <tilted>0</tilted></_>
    <_>
      <rects>
        <_>
          19 21 1 2 -1.</_>
        <_>
          19 22 1 1 2.</_></rects>
      <tilted>0</tilted></_>
    <_>
      <rects>
        <_>
          21 16 2 4 -1.</_>
        <_>
          21 16 1 2 2.</_>
        <_>
          22 18 1 2 2.</_></rects>
      <tilted>0</tilted></_></features></cascade>
</opencv_storage>
