<?xml version="1.0"?>
<opencv_storage>
<stage10>
  <maxWeakCount>10</maxWeakCount>
  <stageThreshold>-1.4363425970077515e+00</stageThreshold>
  <weakClassifiers>
    <_>
      <internalNodes>
        0 -1 147937 4.2279493063688278e-03</internalNodes>
      <leafValues>
        -8.5436892509460449e-01 -2.8571429848670959e-01</leafValues></_>
    <_>
      <internalNodes>
        0 -1 109639 3.1055891886353493e-03</internalNodes>
      <leafValues>
        -4.8508876562118530e-01 2.6774322986602783e-01</leafValues></_>
    <_>
      <internalNodes>
        0 -1 141360 1.0338796302676201e-02</internalNodes>
      <leafValues>
        -1.8913389742374420e-01 5.4695832729339600e-01</leafValues></_>
    <_>
      <internalNodes>
        0 -1 35740 -2.8405886143445969e-02</internalNodes>
      <leafValues>
        -6.1776065826416016e-01 1.6317184269428253e-01</leafValues></_>
    <_>
      <internalNodes>
        0 -1 9833 -6.9338879548013210e-03</internalNodes>
      <leafValues>
        -7.4820566177368164e-01 1.1104147136211395e-01</leafValues></_>
    <_>
      <internalNodes>
        0 -1 154387 3.9206698420457542e-04</internalNodes>
      <leafValues>
        -2.2970822453498840e-01 3.9017477631568909e-01</leafValues></_>
    <_>
      <internalNodes>
        0 -1 2128 -2.2382717579603195e-03</internalNodes>
      <leafValues>
        6.1597669124603271e-01 -1.6096873581409454e-01</leafValues></_>
    <_>
      <internalNodes>
        0 -1 77601 -6.9026965647935867e-03</internalNodes>
      <leafValues>
        -8.3640730381011963e-01 1.4688152074813843e-01</leafValues></_>
    <_>
      <internalNodes>
        0 -1 20753 3.0295308679342270e-02</internalNodes>
      <leafValues>
        7.7699244022369385e-02 -9.1761648654937744e-01</leafValues></_>
    <_>
      <internalNodes>
        0 -1 132519 1.6359025612473488e-03</internalNodes>
      <leafValues>
        1.4529475569725037e-01 -5.8452278375625610e-01</leafValues></_></weakClassifiers></stage10>
</opencv_storage>
